Language model created by QuickLM on Thu Oct 11 12:12:02 EDT 2018
Copyright (c) 1996-2010 Carnegie Mellon University and Alexander I. Rudnicky

The model is in standard ARPA format, designed by Doug Paul while he was at MITRE.

The code that was used to produce this language model is available in Open Source.
Please visit http://www.speech.cs.cmu.edu/tools/ for more information

The (fixed) discount mass is 0.5. The backoffs are computed using the ratio method.
This model based on a corpus of 13 sentences and 16 words

\data\
ngram 1=16
ngram 2=27
ngram 3=14

\1-grams:
-0.7891 </s> -0.3010
-0.7891 <s> -0.2240
-1.9031 AI -0.2240
-1.9031 APPLE -0.2240
-1.9031 BIG -0.2956
-1.9031 C++ -0.2240
-1.9031 DATA -0.2240
-1.9031 DEMO -0.2240
-1.9031 GITHUB -0.2240
-1.9031 HAPPY -0.2240
-1.9031 JAVA -0.2240
-1.9031 NASRALLAH -0.2240
-1.9031 PYTHON -0.2240
-1.9031 RECOGNIZER -0.2240
-1.9031 SPEECH -0.2240
-1.9031 ZEDNY -0.2240

\2-grams:
-1.4150 <s> AI 0.0000
-1.4150 <s> APPLE 0.0000
-1.4150 <s> BIG 0.0000
-1.4150 <s> C++ 0.0000
-1.4150 <s> DEMO 0.0000
-1.4150 <s> GITHUB 0.0000
-1.4150 <s> HAPPY 0.0000
-1.4150 <s> JAVA 0.0000
-1.4150 <s> NASRALLAH 0.0000
-1.4150 <s> PYTHON 0.0000
-1.4150 <s> RECOGNIZER 0.0000
-1.4150 <s> SPEECH 0.0000
-1.4150 <s> ZEDNY 0.0000
-0.3010 AI </s> -0.3010
-0.3010 APPLE </s> -0.3010
-0.3010 BIG DATA 0.0000
-0.3010 C++ </s> -0.3010
-0.3010 DATA </s> -0.3010
-0.3010 DEMO </s> -0.3010
-0.3010 GITHUB </s> -0.3010
-0.3010 HAPPY </s> -0.3010
-0.3010 JAVA </s> -0.3010
-0.3010 NASRALLAH </s> -0.3010
-0.3010 PYTHON </s> -0.3010
-0.3010 RECOGNIZER </s> -0.3010
-0.3010 SPEECH </s> -0.3010
-0.3010 ZEDNY </s> -0.3010

\3-grams:
-0.3010 <s> AI </s>
-0.3010 <s> APPLE </s>
-0.3010 <s> BIG DATA
-0.3010 <s> C++ </s>
-0.3010 <s> DEMO </s>
-0.3010 <s> GITHUB </s>
-0.3010 <s> HAPPY </s>
-0.3010 <s> JAVA </s>
-0.3010 <s> NASRALLAH </s>
-0.3010 <s> PYTHON </s>
-0.3010 <s> RECOGNIZER </s>
-0.3010 <s> SPEECH </s>
-0.3010 <s> ZEDNY </s>
-0.3010 BIG DATA </s>

\end\
